20 64
8 -0.069444716 0.04824465 0.3094339 0.19802706 -0.16060211 -0.18116014 -0.002505702 0.02728683 -0.046207156 -0.18022259 0.25143018 0.058894385 -0.062326267 -0.0022399062 -0.15960461 -0.1144408 -0.09269238 -0.0013945537 -0.0637882 -0.061607707 0.17558815 -0.022832818 0.32518238 -0.034925435 0.1358385 0.13985474 -0.16231766 0.051920544 -0.16801625 -0.05850747 -0.115490824 0.03781763 -0.037827883 -0.121333644 0.19707339 -0.030415487 -0.08710363 0.10970056 0.24466015 -0.07570464 -0.026078658 0.17431003 -0.2027911 -0.26424918 -0.055166658 -0.22905003 -0.052667264 0.12618609 -0.09927178 0.059332933 0.09422716 0.008332067 0.05864955 0.1275357 0.21120611 -0.049535736 0.09718401 -0.19189222 -0.0660043 0.051570084 -0.053410143 -0.14507462 -0.018119218 -0.15140636
11 -0.0019557197 0.037686113 0.30897313 0.031335983 -0.10768227 -0.09284994 -0.04672516 0.06328758 -0.056011323 -0.16637759 0.16209963 0.047363963 -0.019001683 -0.023981268 -0.17935283 -0.15386759 0.0098789595 -0.02153635 0.02138365 0.10163358 0.032256298 -0.12824477 0.26158062 -0.048965476 0.03809167 0.1743216 -0.11625253 -0.040244114 -0.04928814 -0.21456562 0.010103463 0.005369929 -0.25263357 -0.20023327 0.1997662 0.10306615 -0.179555 0.088956244 0.15513858 0.040714014 0.13451722 0.0830152 -0.15268274 -0.21097636 0.078458875 -0.20441823 -0.0669138 -0.07330592 -0.07789493 0.058837984 0.049175683 0.19032387 0.046270803 0.16698368 0.19997747 -0.011186716 0.007599739 -0.0907186 0.19618388 -0.06415859 0.025658246 -0.07540853 -0.0056978273 0.08521395
1 -0.061336864 0.16376908 0.2751246 0.05519186 0.016978841 -0.2111717 -0.071924746 -0.010569684 0.018035198 -0.063093305 0.20288676 0.21260057 0.16588281 -0.15337902 -0.11633258 -0.05373104 -0.22363256 0.112427786 0.058262873 0.14850155 0.080477655 -0.05960793 0.25601596 -0.16090742 0.04222242 0.1901826 -0.19008952 0.07561864 -0.012093006 0.07704743 -0.03674957 0.0629936 -0.19272427 -0.12562436 0.20724303 0.011224196 -0.20265763 0.15333158 0.2217993 0.013476504 0.06297365 0.16888174 -0.16388445 -0.29052174 -0.0077729663 -0.056290418 -0.037726793 -0.07590838 -0.13188286 0.01228286 0.20753035 0.09998447 0.05202021 0.114122346 0.13226731 0.004559067 0.00265368 -0.02915571 0.057243884 -0.10107295 -0.12709789 -0.21152116 -0.06786693 -0.06385537
2 -0.022474846 -0.09917929 0.12069855 0.037152648 0.18474293 -0.06924921 -0.20308457 -0.11223915 0.09779597 -0.103053086 0.13189235 -0.06478971 0.07898522 0.0087923715 -0.110028714 0.015148385 -0.28518462 0.03978013 -0.04185416 0.15773779 0.15041126 -0.012809217 0.23982713 -0.1405767 -0.04613434 0.29810342 -0.21470289 -0.058226254 -0.16943857 0.0075262394 -0.06079781 -0.071306325 -0.13411713 -0.061031733 0.17823002 0.09072675 -0.034130435 0.20342368 0.1835165 0.003722572 -0.02523855 0.082879044 -0.2469903 -0.24121143 0.11042678 -0.05618356 0.15303941 -0.06201563 -0.14523469 -0.03999292 0.0070345616 0.023458757 0.05784292 0.16780372 0.0659716 0.023865344 0.08045553 -0.022080438 -0.086838126 0.019779699 -0.13182992 -0.20412 -0.050284233 -0.07808287
13 -0.047600202 -0.21807325 0.21931933 -0.059161637 0.05589995 -0.19538873 -0.11556976 0.13518664 -0.020739987 -0.04065488 0.06136054 0.049819034 -0.054304194 0.111566566 -0.08276437 0.06847489 0.019540867 0.009189378 -0.09305739 0.2347384 0.13549252 -0.09142067 0.16112249 -0.10058419 0.02125983 0.19944395 -0.22849265 -0.069434464 -0.09219017 -0.33664668 -0.04403822 -0.24870414 -0.19498181 -0.1544011 0.19516861 0.15971768 0.088900864 0.018057752 0.21112938 0.042423416 0.07214392 0.07792665 0.04267799 -0.132305 0.14936651 0.05016054 0.19361238 -0.059267122 0.016534269 -0.06247999 -0.030562028 0.12873207 -0.07180999 0.15072858 0.23772152 0.13079096 -0.043396737 -0.043294016 0.15343024 0.010761606 0.03217683 -0.16226631 -0.16620597 0.065847546
5 -0.0025932463 -0.14315277 0.34708667 0.034773722 -0.16970815 -0.14191313 -0.07219618 0.058501385 -0.0151976645 -0.09324272 0.016611695 -0.0009068577 -0.26444244 0.0075430926 -0.0080566835 0.046888255 0.10118059 -0.07258616 -0.22171699 0.1785612 0.21473816 0.03565412 0.23092376 -0.037155453 0.13092297 0.21222997 -0.2690288 -0.056134764 -0.058341827 -0.16969861 -0.1672606 0.02791207 -0.10653822 -0.16521548 0.09328451 -0.00019245643 0.22766365 0.32726917 0.24645199 -0.036086507 0.076120265 0.06348927 0.13295437 -0.12907824 0.14096709 -0.07400517 0.056670602 0.10151026 -0.048807554 -0.22964248 0.062283713 0.02388903 -0.014297687 0.25356293 0.12511568 0.10432203 0.034490168 0.022402953 -0.084306434 0.018478503 -0.11060055 -0.05955305 -0.016063256 0.033053797
12 -0.07669792 0.057344057 0.28642988 0.078493826 0.14920163 -0.2613692 -0.1739964 -0.046930898 0.0786686 -0.2216958 0.18141466 0.05316733 0.16054654 -0.12673661 -0.12712616 -0.032881096 -0.26275906 -0.003897942 0.072612986 0.2109019 0.1098058 -0.0680055 0.16794813 -0.16545011 -0.110767625 0.16395679 -0.19962849 0.11211204 -0.11681636 0.050457034 0.0031770112 -0.038778167 -0.23535936 0.06779081 0.32429233 -0.014952895 -0.075521186 0.0019326203 0.18025696 0.18238164 -0.014457241 0.10549195 -0.028141368 -0.16602671 -0.03165733 -0.00041687652 0.2770063 -0.04038718 -0.11269924 0.0053489166 0.017951544 -0.023391103 -0.04435958 0.112967536 0.1792795 0.062833555 0.067828685 -0.04216924 -0.049662855 -0.045081194 -0.03057813 -0.33670205 0.027392467 -0.1785676
17 0.022280673 -0.100190416 0.30734167 0.0372635 0.066093154 -0.20437066 -0.16365564 -0.041308112 -0.13847515 -0.15194283 0.013564291 0.026903016 -0.08315263 -0.09929557 -0.08193376 -0.02696988 -0.11577682 -0.030965408 -0.031673014 0.16390045 0.095368735 -0.022463392 0.12873054 -0.017254107 -0.0029244954 0.24902898 -0.22133432 0.054076683 -0.14663322 -0.017932327 0.010142818 -0.07913926 -0.19492145 -0.08198216 0.2965729 -0.01781374 -0.014912478 0.073242165 0.2532215 0.02562719 -0.1386008 0.06208899 0.05084451 -0.11537667 0.043667313 -0.12792087 0.15890938 -0.037976753 -0.03482535 -0.0015096758 0.12466819 0.076949865 -0.061547335 0.1561758 0.12883 -0.013270465 -0.041711055 -0.019456413 -0.017095413 0.050592374 -0.122317694 -0.29171064 -0.051983472 -0.04581555
16 -0.16867708 -0.22755334 0.15819803 -0.10661661 0.03563073 -0.24626674 -0.16422936 0.0066840225 -0.06448122 -0.04263984 0.14272246 0.14741819 -0.11589772 0.018298436 -0.13974884 -0.102146834 -0.1314078 0.085711814 -0.030439494 -0.089512825 0.1426507 -0.20043415 0.2007961 -0.081824146 0.08040221 0.24232377 -0.21055655 -0.040587284 -0.06338368 -0.256343 -0.124002166 -0.09801665 -0.09724727 0.031075105 0.24643248 0.16907182 0.10245709 0.08588635 0.17427596 -0.08949125 0.099807106 0.19281414 -0.2051961 -0.08100415 0.14834157 -0.05490366 0.1875845 -0.063972905 -0.021378728 -0.030202052 0.061824284 -0.036825515 0.01673063 0.13302903 0.22426355 0.0859579 0.0071890606 -0.1492372 -0.05839824 0.105994344 0.11073163 -0.23234572 -0.06289419 0.03161123
9 -0.055597704 0.07059185 0.34772247 -0.029454667 0.11038974 -0.1344988 -0.118375786 -0.14317021 0.0039255936 -0.17143698 0.0821987 0.116216466 0.019185089 -0.16819316 -0.13758963 -0.09529029 -0.18296039 -0.044065464 0.084414236 0.14327377 -0.026632244 -0.12863064 0.1861482 -0.13072687 -0.040178653 0.19683988 -0.19397269 0.07863015 -0.045116708 0.072497554 0.07325419 0.13523422 -0.31568772 -0.016363505 0.28701812 -0.060094252 -0.08929977 0.20548652 0.15043896 0.09508879 0.10151523 0.071364276 -0.067263275 -0.1916718 0.0843467 -0.14002962 0.20410626 -0.092785284 -0.1495054 0.030914601 0.10340924 0.059085794 -0.057576627 0.10520721 0.10330549 0.054221097 0.060875583 0.021949667 -0.004381876 -0.02068344 -0.092389464 -0.251798 0.023473289 -0.0105445385
3 0.025093006 -0.18270086 0.26284742 -0.10642546 0.13137722 -0.01988681 -0.24755143 -0.026831452 0.036694054 -0.16103393 0.007168279 -0.12289471 -0.15458594 -0.037514914 -0.19717519 -0.10715553 -0.050994713 -0.10476023 -0.09262822 0.1848256 0.09186137 -0.08372216 0.15790477 -0.09003671 -0.13439992 0.2798274 -0.2649762 -0.036975905 -0.10297084 -0.06874241 -0.0140556535 0.072744995 -0.21264365 0.024003949 0.29188433 0.025367143 0.11644896 0.22392316 0.19556884 0.08198984 -0.049035426 -0.05670311 0.00064365065 -0.041607574 0.18888864 -0.10053827 0.31505623 -0.053237457 -0.18742904 0.023316069 -0.07398955 0.10631203 -0.01503724 0.18270203 0.072428405 0.055413958 0.123265706 0.037977535 0.021602215 -0.028437382 -0.05397559 -0.19726524 0.055665635 0.028957156
4 0.094636604 -0.13590622 0.2238271 -0.12795834 -0.114110865 -0.08308147 -0.19786684 -0.054218248 -0.027631233 -0.21828085 -0.041571867 -0.11562282 -0.21518594 0.098107815 -0.01150454 -0.05559857 0.014143597 -0.024335174 -0.05320519 0.17354995 0.10077084 -0.033865195 0.17467634 0.101165324 -0.03676621 0.3286153 -0.21999086 -0.18935455 -0.00919323 -0.34352648 -0.20441517 -0.09204455 -0.18138829 -0.18207398 0.021954099 0.15292333 0.23771201 0.26075143 0.04904497 0.069007754 0.22785206 -0.010912408 -0.025657365 -0.18201022 0.26158795 -0.09344442 -0.118812054 -0.15800661 0.09523232 -0.2851715 -0.091585465 0.117960885 -0.017974297 0.34392235 0.18205439 0.20576666 0.085544296 -0.049588203 0.010014591 -0.024774536 -0.017700452 -0.02542008 -0.025756143 0.16800383
14 0.070508234 -0.09969194 0.16878289 -0.019457301 -0.02370899 -0.01087712 -0.06729949 0.02644131 0.059015237 -0.16180296 0.08662381 -0.1852688 -0.38546064 0.08850765 -0.12247784 0.087394886 0.05217473 -0.12130076 -0.037788082 0.27100766 0.25750566 -0.06964618 0.19216152 -0.020932166 -0.107278384 0.19749193 -0.11778242 -0.09604076 -0.08015078 -0.16878416 -0.0400043 -0.042595264 -0.1742859 0.07046799 0.07401106 0.124617055 0.30036646 0.2208666 0.20721582 -0.0830639 -0.101408854 0.16694672 0.12243387 -0.20900932 0.15395476 -0.17005855 0.11572626 0.009527047 -0.12523282 -0.10314773 -0.08427525 -0.07842421 0.05033328 0.2993055 0.286188 -0.022423543 0.17335288 -0.030927163 -0.08103078 -0.1835283 -0.001754207 -0.2023193 0.14463149 -0.09883627
18 0.06307095 0.1553532 0.25859246 0.095477484 -0.059023824 -0.06741233 -0.094342165 -0.14797686 -0.042080607 -0.19552056 0.09577002 0.025849573 0.08258834 0.037690625 -0.0214139 -0.015518973 -0.14248726 -0.045753747 0.08011639 0.17798206 -0.0067116036 -0.13764547 0.23256369 0.047497936 0.036945097 0.18355091 -0.09296006 -0.151744 -0.15920438 -0.24336345 0.014296039 -0.18541053 -0.27910286 -0.2540256 0.16680127 0.10054837 -0.33050254 0.0498897 0.036613118 0.124103926 0.2109296 0.1202961 -0.18278974 -0.38102254 -0.047165584 -0.24946249 -0.19206342 -0.101577915 0.030776808 -0.12402205 0.112142704 0.13916783 0.07163645 0.1480638 0.2135972 0.0989768 -0.024236543 -0.08869302 0.1349772 -0.011342043 -0.06302755 -0.099005125 -0.03449402 0.07260788
0 0.04043678 -0.046859458 0.20911112 -0.17688513 -0.06933715 -0.2208773 -0.2108987 0.15081991 -0.06201058 -0.10368032 -0.024697494 0.075055115 -0.2352371 -0.0013450353 -0.05402535 0.0017369601 -0.026199497 0.03945926 -0.092937455 0.20216371 0.1977753 -0.1984591 0.17982993 -0.08990535 -0.012081085 0.24807563 -0.20939417 -0.07560517 0.07023357 -0.24230069 -0.19422148 0.005400551 -0.1235051 -0.057418328 0.18638536 0.16025966 0.279469 0.19634555 0.026107606 -0.0095112445 -0.013147103 0.18649133 0.046083968 -0.04527493 0.20946576 0.06032142 0.017707799 -0.11637822 0.009068438 -0.0704123 -0.034024585 0.080810405 0.012251191 0.28745848 0.24303365 0.15141305 0.013563969 0.061401173 0.018657997 -0.12519605 -0.04261656 -0.20770134 0.038815908 0.002513665
19 0.00022445842 0.10959798 0.20361227 0.02384454 -0.09335362 -0.1409638 -0.11124956 -0.0037899893 -0.03429574 -0.03679325 0.07917566 0.16851048 -0.06984584 0.025026193 -0.01986856 0.03314552 -0.10570968 0.035396263 0.004790926 0.12756577 0.12902953 -0.15012428 0.20619835 0.03580173 0.0744332 0.17481156 -0.18341973 -0.09078055 -0.06955725 -0.11692568 -0.10833109 -0.10236451 -0.06628398 -0.08064116 0.23164104 0.010689267 -0.1606382 0.10828981 0.23051281 -0.07009044 0.0017257668 0.20086667 0.022689274 -0.27739894 -0.13330127 -0.17706959 -0.0949934 0.005089311 -0.07843716 -0.10167405 0.27140653 -0.011823149 0.13189839 0.123682536 0.23294675 0.12407969 0.009803914 -0.120600194 0.07046258 -0.13913086 -0.10730068 -0.20871268 -0.07594503 -0.09714412
6 -0.1470979 0.07671741 0.2547467 0.034034867 0.17017281 -0.1924648 -0.22362435 -0.07985639 0.083186306 -0.12637734 0.26017374 0.10825862 0.12229768 -0.2004322 -0.1632714 -0.13048325 -0.20330858 0.0015697615 -0.0017494695 0.27621666 0.030479591 -0.10513049 0.10024384 -0.057653088 -0.12433668 0.1448023 -0.292271 0.07350443 -0.15689994 0.10927802 -0.04515178 0.00853953 -0.1874475 -0.08511361 0.40630278 0.057771817 -0.29723012 0.011089012 0.27954558 0.15447557 -0.15494941 0.10140395 -0.2000273 -0.32183957 0.047900524 -0.13441937 0.12011792 0.09408094 -0.107407115 0.15555292 0.08983295 0.21970555 0.15199968 -0.0476519 0.07562309 0.099302255 0.07905189 0.0629407 0.14092422 0.08781472 -0.24795009 -0.16824548 -0.07208197 -0.063856915
10 0.15137814 0.11001749 0.36172134 0.078586005 -0.11124157 -0.023180783 0.021177864 0.09143779 -0.013243526 -0.22095586 0.07668955 -0.016163047 0.076264605 0.18209255 -0.035411846 0.09866082 -0.003130811 -0.08060286 0.023153523 0.22476324 0.08527592 -0.14341608 0.44130704 -0.18297449 0.18589613 0.09754535 -0.0050603305 -0.11704397 0.009873899 -0.28350264 -0.029350717 -0.05803166 -0.24604674 -0.38986373 0.098040454 -0.027127264 -0.14452882 0.19045855 -0.024435917 0.04356266 0.3113032 0.117303334 -0.09886207 -0.3124446 0.077008896 -0.043171063 -0.06919256 -0.17306422 -0.08903069 0.020889552 -0.08937348 0.068150416 -0.12316096 0.2319231 0.2718045 0.047159348 -0.08352876 -0.09052216 0.2557729 -0.21030398 -0.016383009 -0.055147808 -0.006696922 -0.059273496
7 0.07931789 -0.005429116 0.12106559 -0.031264096 -0.060222015 -0.02428953 -0.16386071 -0.06100418 0.07980568 -0.07160259 -0.011267801 -0.027506094 -0.20603919 0.14014585 0.0010625381 0.11074218 -0.14281264 0.012816112 -0.060700074 0.15203305 0.20176059 -0.04545158 0.22596958 0.046236917 -0.033480577 0.31966963 -0.21591927 -0.16950335 -0.08664105 -0.102668986 -0.16858934 -0.08050392 -0.03817209 0.033343047 0.07224419 -0.0041831485 0.17996648 0.29923636 0.20795038 -0.1076724 0.0053043547 0.13339561 0.09745831 -0.22465402 -0.037023757 -0.14534248 -0.008724553 -0.037136298 -0.124809094 -0.2811686 0.15952738 -0.15344673 0.08247056 0.2948312 0.19217743 0.17898569 0.17411621 -0.12442951 -0.1509176 -0.19107126 -0.09842639 -0.21412495 -0.03254179 -0.12546955
15 -0.003501894 -0.08592347 0.25620636 -0.0049253623 -0.06763921 -0.043504346 -0.056353897 0.06419346 -0.14546672 0.07459908 -0.068519905 0.18225546 -0.14992183 0.09713545 -0.17890157 -0.031652384 -0.041411556 0.0022108576 -0.1080713 -0.08934349 0.0013203154 -0.17372587 0.22055879 -0.015097401 0.094668254 0.3166493 -0.20011264 -0.08938615 -0.22585702 -0.24578911 0.14839548 -0.12378596 -0.19834048 -0.03929301 0.28012365 -0.008736983 -0.108494684 0.09192451 0.27592462 -0.15268223 -0.017472649 0.10028993 0.047815435 -0.034620177 -0.1332101 -0.2906426 0.14129677 -0.0198269 -0.15864292 -0.023111632 0.3487796 0.06241662 -0.018106578 0.14522871 0.17680381 0.029839195 0.004392221 -0.16156816 0.02933949 0.0037030857 0.040792223 -0.2769037 -0.17101324 0.0834466
